-0.5537306070327759
0.14270469546318054
0.5289614796638489
-0.583124041557312
0.35655146837234497
0.7656622529029846
-0.6902211308479309
-0.04801885411143303
0.48409155011177063
0.23253720998764038
0.1266598403453827
0.18605460226535797
-0.4280531406402588
-0.24348574876785278
0.24628444015979767
-0.25066161155700684
0.14177003502845764
-0.005486402660608292
0.1771504133939743
0.5214905142784119
0.009873987175524235
-0.2718474566936493
-0.7170886993408203
0.31292372941970825
-0.07575260102748871
-0.22078849375247955
0.33455249667167664
0.06708888709545135
0.19257886707782745
0.1843070536851883
0.05197053402662277
0.2506580948829651
0.20163463056087494
-0.055542025715112686
0.03390618786215782
-0.03495413064956665
0.3127371072769165
0.560381293296814
-0.12867824733257294
0.005120450630784035
-0.0294985082000494
-0.04011969268321991
-0.1779879778623581
-0.35037314891815186
-0.17861612141132355
-0.09618157148361206
-0.09250898659229279
-0.11730832606554031
-0.007901206612586975
0.05374046415090561
-0.017651543021202087
0.10746467113494873
0.19217075407505035
0.052777305245399475
-0.40899983048439026
-0.15149319171905518
0.43300506472587585
-0.4900258183479309
-0.15139134228229523
0.6923674941062927
-0.22097525000572205
-0.07330352067947388
0.39036959409713745
-0.06059364601969719
0.08441688865423203
-0.0004413420974742621
0.11626511067152023
0.2665509879589081
0.15847662091255188
0.07464444637298584
0.15532374382019043
0.11622520536184311
-0.3144940733909607
-0.36074912548065186
-0.07893367111682892
-0.13334284722805023
0.394980251789093
0.3450731933116913
0.08715691417455673
0.4160042405128479
0.374335378408432
-0.21522529423236847
-0.4351220726966858
-0.2547043561935425
0.08803786337375641
0.1839132308959961
0.09675204008817673
0.1612962931394577
0.32625043392181396
0.06622518599033356
-0.04554317519068718
-0.13426879048347473
0.09671516716480255
-0.2455894947052002
-0.1511494666337967
0.2496587485074997
0.0036898143589496613
-0.020328016951680183
0.0712444856762886
-0.18510261178016663
-0.40011176466941833
0.21224191784858704
0.14682309329509735
-0.06544964015483856
0.15058372914791107
0.09679513424634933
0.008671478368341923
0.04277960583567619
0.16640782356262207
0.009702076204121113
0.10657503455877304
-0.02106355130672455
-0.4327268600463867
-0.05940421670675278
0.1627221554517746
-0.04084555804729462
0.07759179174900055
-0.11490853130817413
-0.2152712047100067
-0.10497822612524033
-0.18987376987934113
-0.19146187603473663
-0.08558721840381622
-0.07147786766290665
-0.14054690301418304
-0.038064852356910706
-0.38661324977874756
-0.6950422525405884
-0.5341943502426147
-0.252044677734375
0.3901778757572174
0.20938582718372345
0.2347092181444168
0.6404200196266174
0.42894864082336426
-0.08605312556028366
-0.19867487251758575
-0.13948822021484375
-0.06228386610746384
-0.13371971249580383
-0.2123643159866333
0.005919858813285828
-0.14029142260551453
-0.12217587977647781
-0.010515588335692883
-0.03116047941148281
-0.04667620733380318
0.08318537473678589
0.13568294048309326
-0.04090014472603798
-0.05055626109242439
0.01668645814061165
-0.029975207522511482
-0.16290149092674255
0.07789628207683563
0.2811335623264313
-0.2823587656021118
-0.01004840712994337
0.2653391361236572
-0.13608664274215698
-0.0659617930650711
0.06739015877246857
0.18694019317626953
0.4120631814002991
0.09966758638620377
0.11630591005086899
0.14206652343273163
0.17174801230430603
0.022174272686243057
0.01264331303536892
-0.1374441534280777
0.09578745067119598
-0.13310694694519043
0.5148476362228394
0.05004801228642464
0.5665940046310425
-0.09939442574977875
-0.43515369296073914
0.06445497274398804
-0.6230320334434509
-0.17151674628257751
0.3865538537502289
0.31230005621910095
-0.39835411310195923
-0.03873567283153534
0.37240898609161377
-0.3429488241672516
-0.2281447947025299
0.11196818947792053
0.14883320033550262
0.35739266872406006
0.2007381021976471
0.13835863769054413
0.2845708727836609
0.10804219543933868
-0.25790756940841675
-0.6212893128395081
-0.33873841166496277
0.055400580167770386
0.04578131064772606
0.09880686551332474
-0.13673177361488342
-0.06179428473114967
0.05643746629357338
-0.28333279490470886
-0.1583724021911621
-0.022294646129012108
-0.24635012447834015
-0.009579983539879322
0.1800176501274109
-0.361680269241333
-0.4656844139099121
0.3813338279724121
-0.2381715625524521
-0.0991821363568306
0.17088983952999115
0.14769481122493744
-0.05141046643257141
-0.12118371576070786
0.09795144945383072
-0.24101696908473969
-0.2608874440193176
0.18932010233402252
-0.06677769124507904
-0.23589091002941132
-0.005490265786647797
-0.16856440901756287
-0.0675089955329895
-0.07703749090433121
-0.27827712893486023
-0.23242667317390442
-0.10054633766412735
-0.08905918896198273
-0.038623083382844925
-0.09944239258766174
-0.022313915193080902
0.12835034728050232
-0.1120111271739006
0.08249704539775848
0.15733781456947327
-0.08327595889568329
0.005291260313242674
0.04881177470088005
0.14241160452365875
0.15634645521640778
0.16230103373527527
-0.08697160333395004
-0.12359434366226196
0.0837889239192009
-0.24768613278865814
-0.16019590198993683
0.07354483753442764
-0.19635909795761108
-0.11769182980060577
0.06360716372728348
-0.4329961836338043
-0.29337337613105774
0.08318165689706802
-0.2658616900444031
-0.19874152541160583
0.007672555278986692
0.0076228859834373
-0.32107779383659363
-0.2477516233921051
0.07664468884468079
-0.1353449672460556
-0.1003064215183258
0.27824491262435913
0.23894374072551727
0.13498128950595856
-0.024511955678462982
-0.052962373942136765
0.06157655268907547
-0.25946128368377686
-0.209509015083313
-0.12046337127685547
-0.18040408194065094
-0.22059012949466705
-0.06179680675268173
-0.03611515834927559
-0.04216020181775093
0.025374460965394974
-0.30175456404685974
-0.22100642323493958
-0.04118308797478676
-0.19566890597343445
-0.06439388543367386
0.07747956365346909
-0.2691470980644226
-0.6533451080322266
-0.16660155355930328
0.10338795185089111
-0.2554086744785309
0.10299238562583923
0.39619460701942444
0.45855551958084106
0.2455293834209442
0.28025802969932556
0.8472532033920288
0.19162781536579132
-0.22193017601966858
-0.05002211779356003
-0.06720861047506332
-0.32198137044906616
-0.39320802688598633
-0.2020430564880371
0.3090803623199463
0.3126415014266968
-0.6552839875221252
0.3774726688861847
-0.7384034991264343
-0.43688130378723145
0.7052540183067322
0.28806909918785095
-0.12649831175804138
0.12851087749004364
0.04774099215865135
0.11914467811584473
0.01547532994300127
-0.08790586143732071
0.10900504142045975
-0.09964112937450409
-0.1657516211271286
0.02831927314400673
0.26571422815322876
0.41527125239372253
0.11126254498958588
-0.008734689094126225
-0.007821913808584213
-0.1146518662571907
-0.14037279784679413
-0.35320156812667847
-0.18992149829864502
-0.0773950144648552
-0.16608279943466187
-0.033550944179296494
-0.2378893792629242
-0.3832922577857971
-0.08682793378829956
-0.08495441824197769
-0.20247167348861694
-0.02320430427789688
-0.0667329803109169
-0.23199903964996338
-0.19739022850990295
0.079155333340168
-0.33223968744277954
-0.255281925201416
0.05944466218352318
-0.13769875466823578
-0.05243953689932823
0.37406766414642334
0.15641796588897705
0.17682971060276031
0.4670889973640442
-0.23673740029335022
-0.06348858773708344
-0.24572698771953583
-0.2518666684627533
-0.03541845083236694
0.17781619727611542
0.11095689237117767
-0.14901888370513916
0.2454650104045868
0.11594283580780029
-0.3441416919231415
0.11910870671272278
-0.07798716425895691
-0.19862571358680725
-0.16241760551929474
-0.1578780710697174
-0.13539904356002808
-0.090755894780159
-0.03178582340478897
-0.05345018580555916
0.05849191173911095
0.07876326143741608
0.04241463914513588
-0.569884717464447
-0.600932776927948
-0.20558160543441772
0.23306483030319214
0.18971361219882965
-0.09641965478658676
0.5297735929489136
0.39798933267593384
0.1619623452425003
0.009577163495123386
-0.06313168257474899
-0.10008756816387177
0.14560091495513916
0.12804530560970306
-0.021417487412691116
0.12825922667980194
0.10707298666238785
-0.03326599299907684
0.06551545113325119
-0.051084380596876144
-0.004600135143846273
-0.04069524258375168
-0.24909384548664093
-0.08514316380023956
0.06629633903503418
-0.07706448435783386
0.020634308457374573
-0.034580472856760025
0.047266885638237
0.19147872924804688
-0.06220639869570732
0.017616653814911842
0.06642597913742065
0.1328376829624176
0.19908224046230316
0.17292766273021698
0.22302059829235077
-0.03440135717391968
-0.24136264622211456
0.3243198096752167
-0.011513537727296352
-0.30606114864349365
0.07751042395830154
0.01032945141196251
-0.08297267556190491
0.0743216946721077
0.04434822127223015
-0.04948488995432854
0.143136665225029
0.2237720787525177
0.1433146893978119
0.1259162425994873
0.4145136773586273
0.12205056101083755
0.03724920004606247
-0.10509862750768661
-0.2163466215133667
-0.042389824986457825
-0.1995750218629837
-0.1663362979888916
0.10081824660301208
-0.09372182935476303
-0.13122156262397766
-0.23865415155887604
-0.16740141808986664
0.025124650448560715
-0.3120781183242798
-0.138981431722641
0.148195281624794
-0.13935385644435883
0.03415016457438469
0.1963908076286316
-0.06101309508085251
-0.0611395388841629
0.008034823462367058
-0.13991153240203857
-0.1495954692363739
-0.07485606521368027
-0.08246321976184845
-0.07866594195365906
-0.02884698286652565
0.032538481056690216
0.37154173851013184
-0.24130937457084656
-0.568742036819458
0.493876188993454
-0.06006067618727684
0.06496328115463257
0.12245533615350723
-0.18143720924854279
0.09905693680047989
0.20189310610294342
-0.003019732190296054
0.16012635827064514
0.22949714958667755
0.0783783346414566
0.049063004553318024
0.07347682118415833
0.02121168188750744
0.4268551468849182
-0.12501688301563263
-0.3785812258720398
0.8840581774711609
0.44363272190093994
-0.6029890179634094
0.07274611294269562
-0.19307033717632294
-0.44643399119377136
-0.021105458959937096
-0.0016641186084598303
-0.008937696926295757
-0.023404091596603394
0.027974365279078484
0.02312229573726654
-0.02807513065636158
-0.02325586974620819
0.004360653925687075
0.7007787823677063
0.5562462210655212
0.30398526787757874
0.3411952555179596
-0.16772134602069855
-0.24689295887947083
-0.335453063249588
-0.5234115123748779
-0.5980408191680908
0.061644330620765686
0.011475030332803726
-0.1698058843612671
0.12480544298887253
-0.07662966847419739
-0.23526810109615326
0.23320530354976654
0.1503213793039322
-0.11057351529598236
-0.6440167427062988
-0.9070616364479065
-0.3825628459453583
0.14804239571094513
0.12896811962127686
0.08271285146474838
0.5291033387184143
0.6303671002388
0.45895475149154663
0.06566227227449417
0.06756294518709183
-0.43049511313438416
0.3337446451187134
0.46926450729370117
-0.8145862817764282
0.23393592238426208
0.21721072494983673
-0.1001662015914917
-0.09916326403617859
0.37159043550491333
0.20448477566242218
0.10211945325136185
-0.7224051356315613
0.1154528483748436
0.2899491488933563
-0.30424031615257263
0.14566917717456818
-0.006647598464041948
0.19928106665611267
0.05727188661694527
0.18257343769073486
0.07605886459350586
0.11229975521564484
0.07148793339729309
-0.2721557915210724
0.004167657345533371
0.07759854197502136
0.12691836059093475
0.032305195927619934
0.2213146686553955
0.24680539965629578
-0.04663664102554321
0.046407055109739304
0.02824569121003151
0.01752839796245098
0.016520317643880844
-0.03222537040710449
-0.003845016937702894
-0.06820634007453918
-0.19444814324378967
-0.14166259765625
-0.0695275366306305
-0.18340231478214264
-0.17421650886535645
0.032176412642002106
-0.10765805840492249
-0.2638818025588989
0.27957379817962646
-0.037416160106658936
-0.2547079622745514
0.34872162342071533
0.0300411656498909
-0.05589834973216057
0.17548391222953796
0.009862969629466534
-0.0814131498336792
0.04408892244100571
-0.07032251358032227
-0.26035076379776
0.13239175081253052
-0.17278620600700378
-0.13226330280303955
-0.14076216518878937
-0.21902553737163544
0.15040671825408936
-0.8412667512893677
-0.35175618529319763
0.5639762878417969
-0.24194452166557312
0.5192757844924927
0.5391498804092407
0.30923929810523987
0.6707095503807068
0.020545711740851402
-0.4660739302635193
-1.0696911811828613
0.3350137770175934
-0.0802842304110527
-0.3052239716053009
0.5446043610572815
-0.17888686060905457
-0.08908787369728088
0.04682422801852226
-0.2570459544658661
-0.05144740268588066
0.07478872686624527
-0.1852501630783081
-0.11811619251966476
-0.10412660241127014
0.7214239239692688
1.073387861251831
0.055970050394535065
-0.041376177221536636
-0.11318427324295044
-0.21013931930065155
-0.4245685935020447
-0.6733084917068481
-0.3866713345050812
-0.23016661405563354
-0.21498996019363403
-0.1815565824508667
-0.12459822744131088
-0.013830354437232018
-0.04895394667983055
-0.006238314788788557
0.1474793553352356
0.0530792772769928
-0.4735627770423889
-0.173042431473732
0.6335979104042053
-0.6597485542297363
-0.20743127167224884
0.900283694267273
-0.296997606754303
-0.15298064053058624
0.38720113039016724
-0.0762278363108635
0.09066228568553925
0.0040561906062066555
0.06238333135843277
0.18595655262470245
0.10726649314165115
-0.043461959809064865
0.022271350026130676
0.012660411186516285
0.009372862055897713
-0.3216533362865448
-0.04068371653556824
-0.2889772057533264
-0.030784668400883675
-0.1288391500711441
-0.292958527803421
-0.1655500829219818
-0.2654299736022949
-0.35840263962745667
-0.5114579796791077
-0.30650797486305237
0.04865572974085808
0.17114102840423584
0.13294130563735962
0.20244985818862915
0.41342800855636597
0.17796005308628082
-0.04840117320418358
-0.14002643525600433
0.20721815526485443
-0.35075217485427856
-0.19217649102210999
0.3555087447166443
-0.037124551832675934
-0.04200072959065437
0.08553849905729294
-0.3023677468299866
-0.6338404417037964
0.08720792084932327
0.35992786288261414
-0.03575681895017624
0.131114199757576
0.23734025657176971
0.1178656592965126
0.044524792581796646
0.11038977652788162
-0.07561668753623962
0.058723077178001404
-0.09360738843679428
-0.47772350907325745
-0.0941200703382492
0.13267971575260162
-0.03175206854939461
0.1287580281496048
0.02379058301448822
-0.06246570870280266
-0.018230309709906578
0.006129460409283638
0.01201961562037468
0.05946871638298035
0.06752616167068481
0.0033192643895745277
0.004649213515222073
0.08030232042074203
-0.31682074069976807
-0.35880592465400696
-0.17163988947868347
0.6252419948577881
0.19003067910671234
-0.19101577997207642
0.30750221014022827
-0.07279263436794281
-0.03899453580379486
0.017086686566472054
0.027511294931173325
0.15255920588970184
0.23133355379104614
0.08912208676338196
0.10985030233860016
0.10577473044395447
0.025197314098477364
0.039709437638521194
0.12038296461105347
0.18139463663101196
0.16097573935985565
0.34806185960769653
0.16964252293109894
-0.02667885459959507
0.08908116072416306
0.11456587165594101
-0.30186977982521057
-0.010593744926154613
0.2951708436012268
-0.37953877449035645
-0.05396994948387146
0.3418523669242859
-0.15935775637626648
-0.013278095982968807
0.19156236946582794
-0.22469261288642883
-0.2129228562116623
-0.3467447757720947
-0.35106611251831055
-0.5621034502983093
-0.25247159600257874
-0.0467124879360199
-0.21340492367744446
-0.17973004281520844
-0.46441224217414856
-0.9349545240402222
0.0635870173573494
0.21016925573349
0.7946799993515015
-0.17339444160461426
0.13310988247394562
0.7490012049674988
-0.36958786845207214
0.08830787241458893
0.6934554576873779
0.3848392963409424
-0.35867899656295776
-0.12748567759990692
0.2643027901649475
-0.41350170969963074
-0.45290490984916687
-0.08789388835430145
0.09509565681219101
0.37015238404273987
0.1746978759765625
0.19304586946964264
0.3776099383831024
0.11150189489126205
-0.1835053265094757
-0.7379491925239563
-0.3890253007411957
0.20095360279083252
0.14652119576931
0.03676297143101692
0.1858309805393219
0.27136364579200745
0.14977285265922546
-0.014618052169680595
0.09926647692918777
0.0703720971941948
0.21299342811107635
0.12288488447666168
-0.13709351420402527
0.3149964511394501
-0.24940191209316254
0.2353839874267578
0.2018083930015564
0.0775054395198822
-0.05249334126710892
0.01335244532674551
-0.0040744636207818985
-0.0480244942009449
-0.07467697560787201
-0.18120700120925903
-0.12962983548641205
0.015938065946102142
-0.06676477193832397
-0.19110020995140076
0.12430071830749512
-0.0053666881285607815
-0.02074284479022026
0.2606463134288788
0.1009729653596878
-0.04959002137184143
0.176585853099823
0.2535080015659332
0.10990560054779053
-0.14939643442630768
-0.26597920060157776
-0.07128990441560745
-0.23459765315055847
-0.17721758782863617
-0.09271598607301712
-0.14602477848529816
-0.20357534289360046
-0.168381467461586
-0.00980395171791315
-0.037745073437690735
0.0019108098931610584
-0.228384867310524
-0.33937105536460876
-0.0751703530550003
-0.3846093416213989
-0.3065946400165558
-0.02894296869635582
0.2713683545589447
0.34536129236221313
0.19284535944461823
0.1921057552099228
0.3830578923225403
0.33501511812210083
0.1743396669626236
0.22110965847969055
0.08455103635787964
-0.07271457463502884
-0.4359561502933502
-0.33898481726646423
0.05610618740320206
-0.19655635952949524
-0.1689591258764267
0.24681991338729858
0.19237619638442993
0.07313302904367447
0.135751873254776
0.18532994389533997
0.16307051479816437
-0.04913652688264847
0.08256091177463531
0.03351606801152229
-0.11218683421611786
-0.1085188239812851
-0.027082011103630066
-0.017000442370772362
0.13512879610061646
0.19300977885723114
-0.16944599151611328
0.1060561016201973
0.18329696357250214
-0.11093935370445251
0.15871483087539673
0.24663808941841125
0.05924319848418236
-0.22906598448753357
0.6174049377441406
-0.06841034442186356
-0.38004475831985474
0.30815643072128296
-0.12360779196023941
0.008748190477490425
-0.06728662550449371
0.1723679006099701
0.8067154884338379
-0.11712581664323807
-0.2649969756603241
-0.10923629254102707
-0.23967240750789642
-0.12245936691761017
-0.19177140295505524
0.0076211062259972095
0.24550428986549377
0.8195593357086182
0.17947232723236084
-0.4036441743373871
-1.2440727949142456
0.027060115709900856
0.0515255331993103
-0.041983917355537415
0.34580928087234497
0.06329036504030228
0.05392476171255112
0.150626540184021
-0.07057341188192368
-0.11096977442502975
0.07283464074134827
-0.16453000903129578
-0.2345782369375229
-0.006926286965608597
0.27910247445106506
0.5112059116363525
0.2083459049463272
-0.03825477138161659
0.05793049558997154
-0.044312845915555954
-0.2970391511917114
-0.4734790325164795
-0.2471947968006134
0.1598069816827774
0.07387600094079971
0.17781959474086761
-0.05801066756248474
-0.18597115576267242
0.09815170615911484
0.04511597752571106
-0.05543164163827896
0.16434453427791595
0.20362986624240875
0.24682211875915527
0.2335462123155594
0.4160439372062683
0.18969902396202087
0.18830129504203796
0.15382525324821472
0.05365531146526337
0.09196136891841888
0.2834722399711609
-0.18813276290893555
-0.02365289069712162
0.4480201303958893
-0.6259779334068298
-0.25420787930488586
-0.1378987729549408
-0.28338637948036194
0.11413901299238205
0.11346928030252457
0.06486371159553528
-0.3145087659358978
0.345501184463501
0.20127743482589722
-0.509483814239502
0.25762414932250977
0.02551623433828354
-0.2074507176876068
0.011032016016542912
0.025593498721718788
-0.001816157135181129
0.12100883573293686
0.2638412117958069
0.12182115018367767
0.18616557121276855
0.22402171790599823
0.09601365029811859
-0.18832315504550934
-0.4990393817424774
-0.22857043147087097
0.6447017192840576
0.23352372646331787
-0.42997387051582336
0.6104977130889893
0.16762307286262512
-0.324211448431015
-0.06163187325000763
-0.14184650778770447
-0.20592452585697174
-0.06007717549800873
-0.06772240996360779
-0.18803457915782928
-0.03426138311624527
-0.08169009536504745
-0.1773224174976349
-0.016067421063780785
-0.15212564170360565
-0.08684340864419937
-0.1529378741979599
-0.42173296213150024
-0.20881366729736328
-0.01144227385520935
-0.1606718748807907
-0.08186759799718857
-0.2151561826467514
-0.12878255546092987
0.059984344989061356
-0.286740779876709
-0.22843749821186066
-0.08060118556022644
-0.07832565158605576
-0.004136893432587385
0.05215740576386452
0.35127532482147217
-0.041314709931612015
-0.3799760341644287
0.4621070623397827
0.0056310235522687435
-0.4416158199310303
0.24231797456741333
0.026311559602618217
-0.1918678730726242
0.17608454823493958
-0.09288756549358368
-0.00659433426335454
-0.17184707522392273
-0.4284273684024811
-0.23864369094371796
-0.0672309547662735
-0.05285143479704857
-0.15308652818202972
0.18892627954483032
0.3267597258090973
0.055302686989307404
0.12620162963867188
0.2938440442085266
0.2114153653383255
0.042214713990688324
0.032945666462183
-0.0575750432908535
0.01202110480517149
0.04290052503347397
0.05203930288553238
-0.06874694675207138
0.06614068150520325
0.20709076523780823
0.06186555325984955
0.18827785551548004
0.1645027995109558
0.008393125608563423
0.017740055918693542
-0.044187553226947784
0.00867629237473011
-0.022626634687185287
-0.10781846940517426
0.04758844152092934
0.014056352898478508
-0.022712966427206993
-0.283721923828125
0.5265882015228271
-0.19948703050613403
-1.0091984272003174
0.7687948942184448
0.04278812184929848
-0.11811278015375137
0.3101821839809418
-0.10058479011058807
0.013841535896062851
0.1487703025341034
-0.08507702499628067
0.14709629118442535
0.21072624623775482
-0.05684535950422287
-0.040521565824747086
-0.03510436788201332
-0.09452366828918457
-0.160549595952034
-0.47568461298942566
-0.14990824460983276
0.5915769338607788
0.5351981520652771
-0.20548291504383087
-0.26346686482429504
-0.07544026523828506
0.1333121359348297
-0.0026508166920393705
0.05464966595172882
-0.013927134685218334
0.04943826422095299
0.1174260601401329
0.07548876851797104
0.035145774483680725
0.05852455273270607
0.02573844976723194
0.18473215401172638
-0.09825408458709717
-0.29416200518608093
0.43820974230766296
-0.19054965674877167
-0.2879624366760254
0.305544376373291
0.0901411846280098
-0.12288285791873932
-0.1918681561946869
-0.25780293345451355
-0.3518354296684265
0.05668650195002556
-0.0886678695678711
-0.1899041086435318
0.41227737069129944
0.4531424343585968
0.2036505788564682
-0.7898696064949036
-1.0575432777404785
-0.3043423295021057
0.16682226955890656
0.2604747712612152
0.21998174488544464
0.431201696395874
0.5886242985725403
0.41070547699928284
0.3446590006351471
0.3617158830165863
-0.5834869146347046
0.6300488710403442
0.7423892021179199
-1.2725645303726196
0.19095304608345032
0.11366381496191025
-0.554966926574707
0.115613654255867
0.5409452319145203
0.26976609230041504
0.15470898151397705
-1.1574008464813232
-0.07122251391410828
0.48537927865982056
-0.49701911211013794
0.10169436037540436
-0.05156858637928963
0.10960544645786285
0.056706752628088
0.11407698690891266
-0.14387157559394836
0.005848915781825781
-0.0029281647875905037
-0.4312090277671814
-0.010293337516486645
-0.18327270448207855
-0.06742499768733978
-0.007211963180452585
-0.04885479435324669
0.007042665034532547
-0.12883180379867554
-0.06460051238536835
-0.0645657405257225
0.04423513635993004
0.042781129479408264
-0.067528635263443
-0.007030864711850882
0.011764702387154102
-0.14958302676677704
-0.12360990047454834
0.010205307975411415
-0.10393426567316055
-0.11741869896650314
0.2506323456764221
0.15543025732040405
-0.17432451248168945
0.3925456702709198
0.0323055200278759
-0.35191428661346436
0.19299371540546417
-0.19897854328155518
-0.2971303462982178
0.3130256235599518
-0.1659134030342102
-0.42752256989479065
0.4751867353916168
-0.08267726749181747
-0.48699915409088135
0.6320252418518066
0.0193075742572546
-0.277530312538147
-0.31432396173477173
-0.3704778552055359
-0.1309366077184677
-0.4714418351650238
-0.15503425896167755
0.3458898961544037
0.05438392609357834
0.5868276953697205
0.4957992434501648
0.3157203495502472
0.4233456552028656
-0.34976258873939514
0.0863536074757576
-0.4645695388317108
0.011802873574197292
0.10482650995254517
-0.1458357870578766
-0.01576489396393299
-0.06784472614526749
0.1186133474111557
0.19436684250831604
-0.12034615129232407
0.13880135118961334
0.272122859954834
-0.13372129201889038
0.01615520752966404
0.09262700378894806
0.36843931674957275
0.6584064364433289
0.016453538089990616
-0.005383911542594433
0.023462966084480286
-0.007873499765992165
-0.3082210421562195
-0.45293208956718445
-0.26112160086631775
-0.03661718592047691
-0.003807137021794915
-0.02481743134558201
0.0621868334710598
0.20048436522483826
0.11741131544113159
0.12448140233755112
0.290458619594574
0.11163074523210526
-0.122948057949543
0.00894237868487835
0.2738092243671417
-0.30174657702445984
-0.07338091731071472
0.43106746673583984
-0.12203426659107208
-0.1393185704946518
0.05425712838768959
-0.1509111225605011
-0.02322951890528202
-0.09642061591148376
-0.03646012768149376
0.06301151216030121
0.00032307746005244553
-0.07180016487836838
-0.02415444143116474
-0.01532429363578558
0.4135465919971466
0.15963201224803925
0.05545474588871002
0.1802828311920166
0.3209012448787689
-0.03536095470190048
0.0029643913730978966
0.0033336947672069073
-0.2637588679790497
-0.15251605212688446
-0.3143453896045685
-0.0994831770658493
-0.009032085537910461
0.12004069983959198
0.10608844459056854
0.041895024478435516
0.2146364152431488
0.035848092287778854
0.02929164655506611
-0.05041235312819481
0.041543565690517426
-0.20394979417324066
-0.19158393144607544
0.06288639456033707
-0.03686639666557312
-0.10712316632270813
-0.06928279250860214
-0.0538250170648098
-0.22460415959358215
0.19043982028961182
0.16825422644615173
-0.02450038306415081
0.03952408581972122
0.011711266823112965
-0.05309947952628136
-0.07766648381948471
-0.09657620638608932
-0.1456606686115265
-0.08240025490522385
-0.11263269931077957
-0.2953926622867584
-0.11029209196567535
-0.05375312641263008
-0.10604021698236465
-0.07139692455530167
0.05107169225811958
0.0364508181810379
0.05364192649722099
0.11762838810682297
0.2375953048467636
0.1773218810558319
0.10950023680925369
0.14393994212150574
0.11378856748342514
0.6678619384765625
0.36239558458328247
0.25184375047683716
-0.12336033582687378
0.25560644268989563
-0.006843069568276405
-0.5317096710205078
-0.43834906816482544
-0.5757511258125305
-0.04674384742975235
0.05260010063648224
0.08401381224393845
0.022764429450035095
0.22134771943092346
0.09762648493051529
-0.05229267477989197
0.003494170494377613
-0.03671950474381447
-0.05382367596030235
-0.35401660203933716
-0.22074435651302338
-0.07220198959112167
-0.35214242339134216
-0.34496164321899414
0.10284851491451263
-0.13387560844421387
-0.015920836478471756
-0.14770792424678802
-0.014339959248900414
0.12193817645311356
-0.206251859664917
-0.030139444395899773
0.18381543457508087
-0.008818792179226875
0.03163887932896614
0.0666205957531929
-0.05276273190975189
0.16115997731685638
0.02242491953074932
0.12806104123592377
0.18633855879306793
0.29299449920654297
0.14293232560157776
0.24208404123783112
0.1445840299129486
-0.32240137457847595
-0.6891213655471802
-0.07981934398412704
0.07499825209379196
0.4717695116996765
-0.11143970489501953
0.11497581750154495
0.5417287349700928
-0.024567456915974617
0.17112387716770172
0.42015939950942993
0.06176729500293732
-0.026513924822211266
-0.005369075108319521
0.039514269679784775
-0.09567473828792572
-0.29565438628196716
-0.2576991319656372
-0.27517804503440857
-0.05170433968305588
-0.07615943998098373
0.021451370790600777
0.2369900345802307
0.14911425113677979
0.0353102907538414
-0.18004468083381653
0.09741070866584778
0.017084620893001556
0.02368522435426712
0.09576629847288132
-0.17772291600704193
-0.04609212279319763
0.06957805156707764
-0.2598591148853302
-0.12245368957519531
0.033437300473451614
0.26276063919067383
0.0631648376584053
-0.3239477574825287
0.3655950129032135
-0.21171709895133972
-0.15238982439041138
0.25092631578445435
0.0054243821650743484
-0.3432675898075104
-0.11838895082473755
0.19630922377109528
0.22177864611148834
-0.06837773323059082
0.30668190121650696
0.4037085175514221
-0.11910125613212585
0.23158735036849976
0.20681382715702057
-0.021439408883452415
-0.21382682025432587
-0.2237890213727951
0.1680714339017868
-0.004217682871967554
-0.15109214186668396
0.17115004360675812
0.21497416496276855
0.0823950469493866
0.11068987846374512
0.09831859916448593
0.1531561017036438
0.14491331577301025
0.28121909499168396
0.22190304100513458
0.13163921236991882
0.18328040838241577
0.11292903125286102
0.1931728571653366
0.22823673486709595
0.16960904002189636
0.09654060751199722
0.06893821805715561
0.1696762591600418
-0.12071563303470612
0.011451042257249355
0.17074429988861084
0.02851097285747528
-0.20677854120731354
-0.3121633529663086
-0.01793331652879715
-0.25100797414779663
-0.22689031064510345
0.24482105672359467
-0.004579341970384121
-0.10867364704608917
0.09446718543767929
-0.20742905139923096
-0.20412123203277588
0.12382835894823074
-0.036373067647218704
-0.08586344867944717
0.2518284320831299
0.21685422956943512
0.059742528945207596
0.12394505739212036
0.19313286244869232
0.10568540543317795
0.0518578365445137
0.23280037939548492
0.10472255945205688
-0.04795849323272705
0.017203714698553085
0.006975935306400061
-0.11516052484512329
0.01858673244714737
0.11730397492647171
-0.21442066133022308
0.02219313569366932
0.15647828578948975
-0.16535939276218414
0.09452372044324875
0.14816692471504211
0.3244635760784149
0.10992827266454697
0.47181451320648193
0.047942064702510834
-0.23977474868297577
0.028114696964621544
-0.22308102250099182
-0.22468018531799316
-0.3638644814491272
-0.2552674114704132
0.12588010728359222
-0.4342137575149536
-0.09780707955360413
0.007489917799830437
-0.08055920153856277
0.22033976018428802
0.19332019984722137
0.3143126368522644
-0.3041926324367523
0.48130813241004944
0.24668122828006744
-0.44990888237953186
-0.47522178292274475
0.4605279564857483
-0.4073701500892639
0.07705235481262207
0.366752952337265
-0.08700993657112122
-0.14170868694782257
-0.09579664468765259
-0.06930471956729889
-0.1301349401473999
-0.0909816101193428
-0.06040523946285248
-0.1130659431219101
-0.05184612423181534
0.08976321667432785
0.30585214495658875
0.10819295793771744
-0.05568825453519821
-0.0026361062191426754
0.006864930037409067
-0.1323448270559311
-0.29831036925315857
-0.005703382659703493
0.05203647539019585
0.013584442436695099
0.040714822709560394
-0.04626961052417755
-0.12196628749370575
0.05016186088323593
0.026293771341443062
-0.01060364581644535
0.08966916799545288
-0.06911279261112213
0.026905421167612076
0.14016485214233398
-0.051433026790618896
-0.20884086191654205
-0.03939581662416458
-0.21686841547489166
-0.2711494266986847
-0.06540375202894211
-0.02834242582321167
-0.08652752637863159
-0.056522347033023834
0.3248942494392395
-0.11774345487356186
-0.02044784277677536
-0.07849128544330597
0.13532376289367676
0.25936904549598694
0.22464169561862946
0.03305712714791298
-0.2982513904571533
0.36238518357276917
0.12376265227794647
-0.44970589876174927
0.3128941059112549
-0.012114749290049076
-0.27491796016693115
-0.05355081334710121
0.003631011350080371
-0.03035750426352024
0.007167050149291754
0.16471904516220093
0.04829658195376396
-0.009971452876925468
0.025585226714611053
-0.034902818500995636
0.17734026908874512
-0.015217036008834839
0.11777286976575851
0.33590245246887207
0.08238695561885834
-0.27220916748046875
0.09648194164037704
-0.16680185496807098
-0.37642523646354675
0.13430051505565643
0.13248275220394135
0.040913067758083344
0.16256950795650482
0.21511268615722656
0.08372887223958969
0.10061562061309814
0.11327525973320007
0.011422419920563698
0.1590782105922699
0.1092580109834671
0.12680794298648834
0.042220763862133026
-0.12804073095321655
0.04253675416111946
0.10101288557052612
0.021243400871753693
0.09343720227479935
-0.13745318353176117
-0.08695422857999802
0.0785304456949234
-0.15256239473819733
-0.13740462064743042
-0.0012464874889701605
-0.0721166580915451
-0.0006777500384487212
0.0987912192940712
0.20795759558677673
-0.02826256863772869
-0.18781134486198425
0.260151743888855
-0.054205507040023804
-0.2473217397928238
0.06869014352560043
0.02814645878970623
-0.08024425804615021
0.05417945235967636
0.10736902058124542
0.215178444981575
-0.13107338547706604
-0.1699213832616806
0.07928765565156937
-0.19356639683246613
-0.10202597826719284
-0.056846242398023605
-0.268176794052124
-0.11974501609802246
-0.01358636375516653
-0.22790999710559845
-0.06984613090753555
0.14626066386699677
-0.05567248910665512
0.00718130124732852
0.1381177008152008
-0.020273486152291298
-0.03765551745891571
-0.008611190132796764
-0.15978379547595978
-0.05312164127826691
0.04326004162430763
-0.022602934390306473
0.033795420080423355
0.0015113767003640532
0.04042036831378937
0.06807304918766022
-0.031215736642479897
0.15515056252479553
0.14854684472084045
0.027706269174814224
0.1794413924217224
0.19462193548679352
0.10385950654745102
0.003726433962583542
0.1725146770477295
-0.22703561186790466
-0.31482115387916565
0.42781153321266174
-0.045699138194322586
0.14564384520053864
0.05037471279501915
-0.1842741221189499
-0.015351523645222187
0.04351608455181122
-0.11933625489473343
0.08027980476617813
0.1635056585073471
-0.04101260006427765
-0.060358233749866486
-0.03792181238532066
-0.09972382336854935
-0.57539963722229
-0.22956494987010956
0.4120345711708069
-0.23428519070148468
0.3276211619377136
0.32871153950691223
-0.567366361618042
-0.003467464353889227
0.5244297981262207
0.03787688538432121
0.07181811332702637
0.017459983006119728
0.047028567641973495
0.11584286391735077
0.09737648069858551
0.009138458408415318
0.01632930524647236
-0.0019313694210723042
-0.27488476037979126
-0.45992010831832886
-0.5853654146194458
0.28043079376220703
-0.10797522962093353
-0.20604605972766876
0.510742723941803
0.5082423090934753
0.2902744710445404
-0.2168039083480835
-0.28066739439964294
-0.3642244338989258
0.05863504111766815
-0.05308631435036659
-0.12098924070596695
0.3458075523376465
0.3972492814064026
0.23915226757526398
-0.19363071024417877
-0.42564016580581665
-0.07310769706964493
0.141452819108963
0.13945257663726807
0.0006822184077464044
0.1630973070859909
0.19748452305793762
0.08414602279663086
-0.03473673015832901
0.1935441642999649
-0.020311731845140457
0.12865029275417328
0.42713093757629395
-0.521054208278656
-0.049532413482666016
-0.021309232339262962
-0.1214885264635086
-0.23133473098278046
0.16917669773101807
-0.07686340063810349
0.1703031212091446
-0.4400079548358917
0.10398456454277039
0.2784635126590729
-0.06493241339921951
0.10696991533041
-0.045511532574892044
0.0051882280968129635
-0.04002128541469574
-0.005046400241553783
-0.16216491162776947
-0.07209472358226776
0.0033996349666267633
-0.22782079875469208
-0.05855849012732506
-0.2254716157913208
-0.11931261420249939
-0.023425154387950897
-0.09917119890451431
-0.015142981894314289
0.0009538516751490533
-0.026137398555874825
0.0013567219721153378
0.14281953871250153
0.12660712003707886
0.08504550904035568
0.13066115975379944
0.17585206031799316
0.11288443952798843
0.11936511099338531
0.146559938788414
0.09889158606529236
0.10347562283277512
0.4603198766708374
0.4339907765388489
0.2835242450237274
0.1634124219417572
-0.058164577931165695
-0.19196076691150665
-0.19520841538906097
-0.4563005864620209
-0.4273236393928528
